svm_type one_class
kernel_type rbf
gamma 5.645216535711965
nr_class 2
total_sv 8
rho 0.020833388958139264
SV
0.0029636133317426055 0:0.032836 1:0.62272 
0.018169939261331803 0:1.0 1:0.028343 
0.00979804270555394 0:0.016418 1:1.0 
0.015206457311521036 0:0.0 1:0.0 
0.004789620120785329 0:0.020896 1:0.42463 
0.011425190860656508 0:0.47015 1:0.021997 
0.011440988369163158 0:0.28507 1:0.99491 
0.004706148039245628 0:0.20448 1:0.52337 
