svm_type one_class
kernel_type rbf
gamma 7.4348089941792885
nr_class 2
total_sv 9
rho 0.01843485378526793
SV
0.004876783293462132 0:0.032836 1:0.62272 
0.01685231412010106 0:1.0 1:0.028343 
0.009433495980355375 0:0.016418 1:1.0 
0.004028137729188914 0:0.010448 1:0.35128 
0.013289662801573133 0:0.0 1:0.0 
9.706867666101014E-4 0:0.020896 1:0.42463 
0.01278907246627682 0:0.47015 1:0.021997 
0.010486599691195014 0:0.28507 1:0.99491 
0.005773247151237447 0:0.20448 1:0.52337 
