svm_type one_class
kernel_type rbf
gamma 5.146245406314855
nr_class 2
total_sv 8
rho 0.011287993398043091
SV
0.004038961334087465 0:0.071637 1:0.54741 
0.009940706250988753 0:1.0 1:0.0033682 
0.002207365970828911 0:0.024854 1:0.44673 
1.2100836974499605E-4 0:0.11988 1:0.66477 
0.007380919408437341 0:0.005848 1:0.014655 
0.005489811699601742 0:0.52047 1:0.0 
0.009141425251835972 0:0.3114 1:1.0 
9.798017144748213E-4 0:0.27632 1:0.44638 
